<?xml version="1.0"?>
<opencv_storage>
<cascade>
  <stageType>BOOST</stageType>
  <featureType>HAAR</featureType>
  <height>24</height>
  <width>24</width>
  <stageParams>
    <boostType>GAB</boostType>
    <minHitRate>9.9500000476837158e-01</minHitRate>
    <maxFalseAlarm>5.0000000000000000e-01</maxFalseAlarm>
    <weightTrimRate>9.4999999999999996e-01</weightTrimRate>
    <maxDepth>1</maxDepth>
    <maxWeakCount>100</maxWeakCount></stageParams>
  <featureParams>
    <maxCatCount>0</maxCatCount>
    <featSize>1</featSize>
    <mode>BASIC</mode></featureParams>
  <stageNum>15</stageNum>
  <stages>
    <!-- stage 0 -->
    <_>
      <maxWeakCount>6</maxWeakCount>
      <stageThreshold>-1.1498197168111801e-01</stageThreshold>
      <weakClassifiers>
        <_>
          <internalNodes>
            0 -1 38 8.8748289272189140e-03</internalNodes>
          <leafValues>
            -2.1629212796688080e-01 8.2994925975799561e-01</leafValues></_>
        <_>
          <internalNodes>
            0 -1 3 1.1978768557310104e-01</internalNodes>
          <leafValues>
            3.9384031295776367e-01 -8.9419281482696533e-01</leafValues></_>
        <_>
          <internalNodes>
            0 -1 126 -3.2597382087260485e-03</internalNodes>
          <leafValues>
            8.9348465204238892e-01 -3.5955578088760376e-01</leafValues></_>
        <_>
          <internalNodes>
            0 -1 31 -2.0985893905162811e-02</internalNodes>
          <leafValues>
            8.3888065814971924e-01 -3.6019113659858704e-01</leafValues></_>
        <_>
          <internalNodes>
            0 -1 57 -2.7897365391254425e-02</internalNodes>
          <leafValues>
            9.1369801759719849e-01 -2.6945412158966064e-01</leafValues></_>
        <_>
          <internalNodes>
            0 -1 36 -8.3344690501689911e-03</internalNodes>
          <leafValues>
            9.3846261501312256e-01 -2.8483736515045166e-01</leafValues></_></weakClassifiers></_>
    <!-- stage 1 -->
    <_>
      <maxWeakCount>6</maxWeakCount>
      <stageThreshold>-7.2771632671356201e-01</stageThreshold>
      <weakClassifiers>
        <_>
          <internalNodes>
            0 -1 19 -8.7446737289428711e-01</internalNodes>
          <leafValues>
            -1. 5.8478605747222900e-01</leafValues></_>
        <_>
          <internalNodes>
            0 -1 11 -2.3812443017959595e-02</internalNodes>
          <leafValues>
            6.5431022644042969e-01 -3.7379422783851624e-01</leafValues></_>
        <_>
          <internalNodes>
            0 -1 121 5.5715329945087433e-03</internalNodes>
          <leafValues>
            -2.4834135174751282e-01 8.2010161876678467e-01</leafValues></_>
        <_>
          <internalNodes>
            0 -1 2 -6.5147995948791504e-02</internalNodes>
          <leafValues>
            -6.5541750192642212e-01 3.0545464158058167e-01</leafValues></_>
        <_>
          <internalNodes>
            0 -1 123 -2.2430359385907650e-03</internalNodes>
          <leafValues>
            6.4301413297653198e-01 -2.8250157833099365e-01</leafValues></_>
        <_>
          <internalNodes>
            0 -1 32 -6.8774178624153137e-02</internalNodes>
          <leafValues>
            2.4755229055881500e-01 -8.1707841157913208e-01</leafValues></_></weakClassifiers></_>
    <!-- stage 2 -->
    <_>
      <maxWeakCount>9</maxWeakCount>
      <stageThreshold>-7.4138981103897095e-01</stageThreshold>
      <weakClassifiers>
        <_>
          <internalNodes>
            0 -1 103 1.6365520656108856e-02</internalNodes>
          <leafValues>
            5.1288056373596191e-01 -7.1689498424530029e-01</leafValues></_>
        <_>
          <internalNodes>
            0 -1 42 1.2075154110789299e-02</internalNodes>
          <leafValues>
            -3.1927436590194702e-01 5.9553068876266479e-01</leafValues></_>
        <_>
          <internalNodes>
            0 -1 129 4.2241471819579601e-03</internalNodes>
          <leafValues>
            -2.8354549407958984e-01 7.2219085693359375e-01</leafValues></_>
        <_>
          <internalNodes>
            0 -1 58 -2.8414819389581680e-02</internalNodes>
          <leafValues>
            7.9435330629348755e-01 -2.2394168376922607e-01</leafValues></_>
        <_>
          <internalNodes>
            0 -1 96 -2.7355919592082500e-03</internalNodes>
          <leafValues>
            7.9833418130874634e-01 -1.9517958164215088e-01</leafValues></_>
        <_>
          <internalNodes>
            0 -1 65 -5.6717563420534134e-02</internalNodes>
          <leafValues>
            -7.5517660379409790e-01 2.7546304464340210e-01</leafValues></_>
        <_>
          <internalNodes>
            0 -1 94 1.7565886955708265e-03</internalNodes>
          <leafValues>
            -2.6595211029052734e-01 7.0039373636245728e-01</leafValues></_>
        <_>
          <internalNodes>
            0 -1 51 -5.2178893238306046e-02</internalNodes>
          <leafValues>
            2.3518909513950348e-01 -7.6988399028778076e-01</leafValues></_>
        <_>
          <internalNodes>
            0 -1 109 1.4498349279165268e-02</internalNodes>
          <leafValues>
            -2.6554876565933228e-01 6.9029945135116577e-01</leafValues></_></weakClassifiers></_>
    <!-- stage 3 -->
    <_>
      <maxWeakCount>9</maxWeakCount>
      <stageThreshold>-5.1773262023925781e-01</stageThreshold>
      <weakClassifiers>
        <_>
          <internalNodes>
            0 -1 148 4.8219952732324600e-03</internalNodes>
          <leafValues>
            5.0115120410919189e-01 -7.7664977312088013e-01</leafValues></_>
        <_>
          <internalNodes>
            0 -1 43 -2.3353189229965210e-02</internalNodes>
          <leafValues>
            7.9801881313323975e-01 -2.5643950700759888e-01</leafValues></_>
        <_>
          <internalNodes>
            0 -1 127 8.0954786390066147e-03</internalNodes>
          <leafValues>
            -2.1329699456691742e-01 8.0190891027450562e-01</leafValues></_>
        <_>
          <internalNodes>
            0 -1 145 -6.3705430366098881e-03</internalNodes>
          <leafValues>
            -7.0391809940338135e-01 2.6442286372184753e-01</leafValues></_>
        <_>
          <internalNodes>
            0 -1 40 8.4482422098517418e-03</internalNodes>
          <leafValues>
            -2.2549994289875031e-01 8.2688969373703003e-01</leafValues></_>
        <_>
          <internalNodes>
            0 -1 61 5.3487811237573624e-02</internalNodes>
          <leafValues>
            1.8543161451816559e-01 -8.9429855346679688e-01</leafValues></_>
        <_>
          <internalNodes>
            0 -1 1 6.6400185227394104e-02</internalNodes>
          <leafValues>
            1.6422221064567566e-01 -8.7238645553588867e-01</leafValues></_>
        <_>
          <internalNodes>
            0 -1 54 -7.9530682414770126e-03</internalNodes>
          <leafValues>
            -7.5349056720733643e-01 1.9615490734577179e-01</leafValues></_>
        <_>
          <internalNodes>
            0 -1 8 3.6318765487521887e-03</internalNodes>
          <leafValues>
            1.6919387876987457e-01 -7.6277625560760498e-01</leafValues></_></weakClassifiers></_>
    <!-- stage 4 -->
    <_>
      <maxWeakCount>9</maxWeakCount>
      <stageThreshold>-8.6799472570419312e-01</stageThreshold>
      <weakClassifiers>
        <_>
          <internalNodes>
            0 -1 74 7.5061595998704433e-03</internalNodes>
          <leafValues>
            5.2321004867553711e-01 -7.2052401304244995e-01</leafValues></_>
        <_>
          <internalNodes>
            0 -1 14 -6.2470752745866776e-03</internalNodes>
          <leafValues>
            -7.0892590284347534e-01 2.9795134067535400e-01</leafValues></_>
        <_>
          <internalNodes>
            0 -1 91 -2.0571216009557247e-03</internalNodes>
          <leafValues>
            -8.0526763200759888e-01 2.1636605262756348e-01</leafValues></_>
        <_>
          <internalNodes>
            0 -1 20 -1.6290284693241119e-02</internalNodes>
          <leafValues>
            7.2425210475921631e-01 -2.9317283630371094e-01</leafValues></_>
        <_>
          <internalNodes>
            0 -1 137 -3.0609639361500740e-03</internalNodes>
          <leafValues>
            8.8388997316360474e-01 -1.7736142873764038e-01</leafValues></_>
        <_>
          <internalNodes>
            0 -1 116 3.0783931724727154e-03</internalNodes>
          <leafValues>
            -1.7232123017311096e-01 7.6760524511337280e-01</leafValues></_>
        <_>
          <internalNodes>
            0 -1 0 1.0105436667799950e-03</internalNodes>
          <leafValues>
            2.0750074088573456e-01 -7.9496240615844727e-01</leafValues></_>
        <_>
          <internalNodes>
            0 -1 22 3.1866100616753101e-03</internalNodes>
          <leafValues>
            1.9418169558048248e-01 -6.9608384370803833e-01</leafValues></_>
        <_>
          <internalNodes>
            0 -1 24 -9.5028686337172985e-04</internalNodes>
          <leafValues>
            -6.3041311502456665e-01 2.3279368877410889e-01</leafValues></_></weakClassifiers></_>
    <!-- stage 5 -->
    <_>
      <maxWeakCount>10</maxWeakCount>
      <stageThreshold>-5.9831464290618896e-01</stageThreshold>
      <weakClassifiers>
        <_>
          <internalNodes>
            0 -1 46 1.0073419660329819e-02</internalNodes>
          <leafValues>
            -7.0503599941730499e-02 6.8198758363723755e-01</leafValues></_>
        <_>
          <internalNodes>
            0 -1 115 -3.8111167959868908e-03</internalNodes>
          <leafValues>
            8.2075542211532593e-01 -1.0779558122158051e-01</leafValues></_>
        <_>
          <internalNodes>
            0 -1 75 1.2930294498801231e-02</internalNodes>
          <leafValues>
            -2.0198349654674530e-01 7.6335495710372925e-01</leafValues></_>
        <_>
          <internalNodes>
            0 -1 67 -1.8779790028929710e-02</internalNodes>
          <leafValues>
            6.9394087791442871e-01 -2.7645516395568848e-01</leafValues></_>
        <_>
          <internalNodes>
            0 -1 125 5.2196364849805832e-03</internalNodes>
          <leafValues>
            -2.1949739754199982e-01 7.7916318178176880e-01</leafValues></_>
        <_>
          <internalNodes>
            0 -1 128 4.2505296878516674e-03</internalNodes>
          <leafValues>
            -7.5152248144149780e-02 8.5931533575057983e-01</leafValues></_>
        <_>
          <internalNodes>
            0 -1 114 2.6399276684969664e-03</internalNodes>
          <leafValues>
            -1.8040400743484497e-01 6.5419191122055054e-01</leafValues></_>
        <_>
          <internalNodes>
            0 -1 93 3.6014853976666927e-03</internalNodes>
          <leafValues>
            -1.2239778041839600e-01 9.1177117824554443e-01</leafValues></_>
        <_>
          <internalNodes>
            0 -1 18 -1.9981306046247482e-02</internalNodes>
          <leafValues>
            4.6660688519477844e-01 -2.8625592589378357e-01</leafValues></_>
        <_>
          <internalNodes>
            0 -1 24 -1.4988201437518001e-03</internalNodes>
          <leafValues>
            -6.3530260324478149e-01 1.8963937461376190e-01</leafValues></_></weakClassifiers></_>
    <!-- stage 6 -->
    <_>
      <maxWeakCount>13</maxWeakCount>
      <stageThreshold>-7.5158411264419556e-01</stageThreshold>
      <weakClassifiers>
        <_>
          <internalNodes>
            0 -1 23 1.7824587412178516e-03</internalNodes>
          <leafValues>
            4.6388682723045349e-01 -7.8343951702117920e-01</leafValues></_>
        <_>
          <internalNodes>
            0 -1 40 6.9544287398457527e-03</internalNodes>
          <leafValues>
            -1.8344376981258392e-01 7.2017145156860352e-01</leafValues></_>
        <_>
          <internalNodes>
            0 -1 144 -2.7958960272371769e-03</internalNodes>
          <leafValues>
            -6.8213218450546265e-01 2.1004675328731537e-01</leafValues></_>
        <_>
          <internalNodes>
            0 -1 144 2.5809979997575283e-03</internalNodes>
          <leafValues>
            1.5092265605926514e-01 -7.3724663257598877e-01</leafValues></_>
        <_>
          <internalNodes>
            0 -1 142 -3.6394675262272358e-03</internalNodes>
          <leafValues>
            -7.6547282934188843e-01 1.3560563325881958e-01</leafValues></_>
        <_>
          <internalNodes>
            0 -1 105 4.6827927231788635e-02</internalNodes>
          <leafValues>
            -1.7673757672309875e-01 8.2628577947616577e-01</leafValues></_>
        <_>
          <internalNodes>
            0 -1 119 1.0230975225567818e-02</internalNodes>
          <leafValues>
            -2.5147700309753418e-01 6.6693699359893799e-01</leafValues></_>
        <_>
          <internalNodes>
            0 -1 90 1.5609468100592494e-03</internalNodes>
          <leafValues>
            2.2954086959362030e-01 -8.4290742874145508e-01</leafValues></_>
        <_>
          <internalNodes>
            0 -1 128 3.3336477354168892e-03</internalNodes>
          <leafValues>
            -2.2954982519149780e-01 6.5293246507644653e-01</leafValues></_>
        <_>
          <internalNodes>
            0 -1 82 -8.6720427498221397e-03</internalNodes>
          <leafValues>
            -6.6895854473114014e-01 1.9860999286174774e-01</leafValues></_>
        <_>
          <internalNodes>
            0 -1 10 -2.6331061962991953e-03</internalNodes>
          <leafValues>
            -6.0304087400436401e-01 1.9820669293403625e-01</leafValues></_>
        <_>
          <internalNodes>
            0 -1 13 1.1822732631117105e-03</internalNodes>
          <leafValues>
            2.1015571057796478e-01 -5.9900975227355957e-01</leafValues></_>
        <_>
          <internalNodes>
            0 -1 30 -8.8661313056945801e-03</internalNodes>
          <leafValues>
            3.5883739590644836e-01 -3.5123655200004578e-01</leafValues></_></weakClassifiers></_>
    <!-- stage 7 -->
    <_>
      <maxWeakCount>13</maxWeakCount>
      <stageThreshold>-5.4190671443939209e-01</stageThreshold>
      <weakClassifiers>
        <_>
          <internalNodes>
            0 -1 70 -4.3689854443073273e-02</internalNodes>
          <leafValues>
            -6.7213112115859985e-01 4.7304481267929077e-01</leafValues></_>
        <_>
          <internalNodes>
            0 -1 86 4.8460448160767555e-03</internalNodes>
          <leafValues>
            -1.7993831634521484e-01 6.7706876993179321e-01</leafValues></_>
        <_>
          <internalNodes>
            0 -1 137 -3.7427451461553574e-03</internalNodes>
          <leafValues>
            8.7424749135971069e-01 -1.1326711624860764e-01</leafValues></_>
        <_>
          <internalNodes>
            0 -1 60 3.7500023841857910e-02</internalNodes>
          <leafValues>
            1.7534838616847992e-01 -7.9856139421463013e-01</leafValues></_>
        <_>
          <internalNodes>
            0 -1 135 4.5357993803918362e-03</internalNodes>
          <leafValues>
            -1.9407166540622711e-01 6.8849897384643555e-01</leafValues></_>
        <_>
          <internalNodes>
            0 -1 146 3.2998961396515369e-03</internalNodes>
          <leafValues>
            1.6861638426780701e-01 -7.7632099390029907e-01</leafValues></_>
        <_>
          <internalNodes>
            0 -1 95 3.7323273718357086e-03</internalNodes>
          <leafValues>
            -1.8533933162689209e-01 6.9391286373138428e-01</leafValues></_>
        <_>
          <internalNodes>
            0 -1 9 -3.2123949378728867e-02</internalNodes>
          <leafValues>
            5.0154310464859009e-01 -3.3023998141288757e-01</leafValues></_>
        <_>
          <internalNodes>
            0 -1 132 -6.2377341091632843e-03</internalNodes>
          <leafValues>
            7.4419814348220825e-01 -1.6494080424308777e-01</leafValues></_>
        <_>
          <internalNodes>
            0 -1 108 -1.5920803416520357e-03</internalNodes>
          <leafValues>
            2.6791056990623474e-01 -5.1051890850067139e-01</leafValues></_>
        <_>
          <internalNodes>
            0 -1 122 -2.5164987891912460e-03</internalNodes>
          <leafValues>
            8.1788182258605957e-01 -1.3995632529258728e-01</leafValues></_>
        <_>
          <internalNodes>
            0 -1 89 1.4404838439077139e-03</internalNodes>
          <leafValues>
            1.6102614998817444e-01 -8.1178092956542969e-01</leafValues></_>
        <_>
          <internalNodes>
            0 -1 41 -4.9851529300212860e-02</internalNodes>
          <leafValues>
            5.6071919202804565e-01 -2.1417571604251862e-01</leafValues></_></weakClassifiers></_>
    <!-- stage 8 -->
    <_>
      <maxWeakCount>11</maxWeakCount>
      <stageThreshold>-5.2492934465408325e-01</stageThreshold>
      <weakClassifiers>
        <_>
          <internalNodes>
            0 -1 53 -4.4404864311218262e-02</internalNodes>
          <leafValues>
            7.8853046894073486e-01 6.3694268465042114e-02</leafValues></_>
        <_>
          <internalNodes>
            0 -1 53 4.7461278736591339e-02</internalNodes>
          <leafValues>
            -1.1238004267215729e-01 7.8051352500915527e-01</leafValues></_>
        <_>
          <internalNodes>
            0 -1 28 -6.0702781192958355e-03</internalNodes>
          <leafValues>
            3.5318678617477417e-01 -4.8726662993431091e-01</leafValues></_>
        <_>
          <internalNodes>
            0 -1 100 3.3183585852384567e-02</internalNodes>
          <leafValues>
            -2.5635477900505066e-01 5.7383728027343750e-01</leafValues></_>
        <_>
          <internalNodes>
            0 -1 126 -8.2912836223840714e-03</internalNodes>
          <leafValues>
            6.8857252597808838e-01 -1.4775744080543518e-01</leafValues></_>
        <_>
          <internalNodes>
            0 -1 112 6.1121042817831039e-03</internalNodes>
          <leafValues>
            -1.2477199733257294e-01 8.9458805322647095e-01</leafValues></_>
        <_>
          <internalNodes>
            0 -1 131 2.5257156230509281e-03</internalNodes>
          <leafValues>
            -1.7565628886222839e-01 5.6734454631805420e-01</leafValues></_>
        <_>
          <internalNodes>
            0 -1 92 2.9263799078762531e-03</internalNodes>
          <leafValues>
            1.3932095468044281e-01 -8.3550715446472168e-01</leafValues></_>
        <_>
          <internalNodes>
            0 -1 94 -2.3030838929116726e-03</internalNodes>
          <leafValues>
            7.0195096731185913e-01 -1.6251204907894135e-01</leafValues></_>
        <_>
          <internalNodes>
            0 -1 94 1.5468964120373130e-03</internalNodes>
          <leafValues>
            -1.7195250093936920e-01 6.5314877033233643e-01</leafValues></_>
        <_>
          <internalNodes>
            0 -1 79 -2.3267895448952913e-04</internalNodes>
          <leafValues>
            -5.5211633443832397e-01 1.8587093055248260e-01</leafValues></_></weakClassifiers></_>
    <!-- stage 9 -->
    <_>
      <maxWeakCount>10</maxWeakCount>
      <stageThreshold>-6.5917843580245972e-01</stageThreshold>
      <weakClassifiers>
        <_>
          <internalNodes>
            0 -1 42 1.0331318713724613e-02</internalNodes>
          <leafValues>
            -1.3605442363768816e-03 6.5490198135375977e-01</leafValues></_>
        <_>
          <internalNodes>
            0 -1 17 4.2733944952487946e-02</internalNodes>
          <leafValues>
            1.8002283573150635e-01 -9.4258314371109009e-01</leafValues></_>
        <_>
          <internalNodes>
            0 -1 52 5.2899397909641266e-02</internalNodes>
          <leafValues>
            -1.9288800656795502e-01 6.7779690027236938e-01</leafValues></_>
        <_>
          <internalNodes>
            0 -1 34 -3.9286442101001740e-02</internalNodes>
          <leafValues>
            5.6924647092819214e-01 -2.7583307027816772e-01</leafValues></_>
        <_>
          <internalNodes>
            0 -1 113 -1.5756408683955669e-03</internalNodes>
          <leafValues>
            6.9850683212280273e-01 -1.5607042610645294e-01</leafValues></_>
        <_>
          <internalNodes>
            0 -1 5 -4.1171340853907168e-04</internalNodes>
          <leafValues>
            2.1310490369796753e-01 -5.0009554624557495e-01</leafValues></_>
        <_>
          <internalNodes>
            0 -1 6 5.6289252825081348e-03</internalNodes>
          <leafValues>
            1.2398497760295868e-01 -7.7752143144607544e-01</leafValues></_>
        <_>
          <internalNodes>
            0 -1 98 -1.6044339537620544e-01</internalNodes>
          <leafValues>
            -9.5495325326919556e-01 9.0613707900047302e-02</leafValues></_>
        <_>
          <internalNodes>
            0 -1 26 2.9631345532834530e-03</internalNodes>
          <leafValues>
            9.1694727540016174e-02 -8.3768051862716675e-01</leafValues></_>
        <_>
          <internalNodes>
            0 -1 140 6.4195934683084488e-03</internalNodes>
          <leafValues>
            -1.8180841207504272e-01 6.1726421117782593e-01</leafValues></_></weakClassifiers></_>
    <!-- stage 10 -->
    <_>
      <maxWeakCount>15</maxWeakCount>
      <stageThreshold>-7.8433763980865479e-01</stageThreshold>
      <weakClassifiers>
        <_>
          <internalNodes>
            0 -1 72 -6.1787731945514679e-02</internalNodes>
          <leafValues>
            -4.7474747896194458e-01 4.5622119307518005e-01</leafValues></_>
        <_>
          <internalNodes>
            0 -1 35 -3.9844308048486710e-03</internalNodes>
          <leafValues>
            8.5830295085906982e-01 -1.2362969666719437e-01</leafValues></_>
        <_>
          <internalNodes>
            0 -1 88 5.7731129345484078e-05</internalNodes>
          <leafValues>
            -3.3357566595077515e-01 3.2549536228179932e-01</leafValues></_>
        <_>
          <internalNodes>
            0 -1 21 2.0827362313866615e-03</internalNodes>
          <leafValues>
            1.3363210856914520e-01 -6.6949671506881714e-01</leafValues></_>
        <_>
          <internalNodes>
            0 -1 44 1.9595094490796328e-03</internalNodes>
          <leafValues>
            -2.4371658265590668e-01 4.5395311713218689e-01</leafValues></_>
        <_>
          <internalNodes>
            0 -1 79 5.1663361955434084e-04</internalNodes>
          <leafValues>
            1.6055935621261597e-01 -6.7355453968048096e-01</leafValues></_>
        <_>
          <internalNodes>
            0 -1 16 -7.2972606867551804e-03</internalNodes>
          <leafValues>
            -7.0439630746841431e-01 1.3578008115291595e-01</leafValues></_>
        <_>
          <internalNodes>
            0 -1 148 2.0976085215806961e-03</internalNodes>
          <leafValues>
            1.3081139326095581e-01 -6.8792706727981567e-01</leafValues></_>
        <_>
          <internalNodes>
            0 -1 102 -1.3032507151365280e-02</internalNodes>
          <leafValues>
            4.5878106355667114e-01 -2.3117819428443909e-01</leafValues></_>
        <_>
          <internalNodes>
            0 -1 138 -5.8729154989123344e-03</internalNodes>
          <leafValues>
            5.8891654014587402e-01 -2.4538481235504150e-01</leafValues></_>
        <_>
          <internalNodes>
            0 -1 80 -1.2784993276000023e-02</internalNodes>
          <leafValues>
            5.0750482082366943e-01 -1.8671202659606934e-01</leafValues></_>
        <_>
          <internalNodes>
            0 -1 93 1.6404773341491818e-03</internalNodes>
          <leafValues>
            -2.2157461941242218e-01 6.5331345796585083e-01</leafValues></_>
        <_>
          <internalNodes>
            0 -1 39 5.7348092086613178e-03</internalNodes>
          <leafValues>
            -1.6305758059024811e-01 5.5138421058654785e-01</leafValues></_>
        <_>
          <internalNodes>
            0 -1 134 1.3039665296673775e-02</internalNodes>
          <leafValues>
            -1.2406939268112183e-01 7.3556816577911377e-01</leafValues></_>
        <_>
          <internalNodes>
            0 -1 107 4.8796832561492920e-03</internalNodes>
          <leafValues>
            -2.0031666755676270e-01 4.4569218158721924e-01</leafValues></_></weakClassifiers></_>
    <!-- stage 11 -->
    <_>
      <maxWeakCount>14</maxWeakCount>
      <stageThreshold>-7.4084579944610596e-01</stageThreshold>
      <weakClassifiers>
        <_>
          <internalNodes>
            0 -1 104 -3.2717771828174591e-03</internalNodes>
          <leafValues>
            -5.9731543064117432e-01 4.3597334623336792e-01</leafValues></_>
        <_>
          <internalNodes>
            0 -1 97 -3.0119899660348892e-02</internalNodes>
          <leafValues>
            5.2413362264633179e-01 -2.4632968008518219e-01</leafValues></_>
        <_>
          <internalNodes>
            0 -1 77 -1.2671072036027908e-02</internalNodes>
          <leafValues>
            6.5224313735961914e-01 -2.5309112668037415e-01</leafValues></_>
        <_>
          <internalNodes>
            0 -1 87 4.8294790758518502e-05</internalNodes>
          <leafValues>
            -3.0169844627380371e-01 3.8759946823120117e-01</leafValues></_>
        <_>
          <internalNodes>
            0 -1 45 -8.0050928518176079e-03</internalNodes>
          <leafValues>
            5.4107052087783813e-01 -2.7065014839172363e-01</leafValues></_>
        <_>
          <internalNodes>
            0 -1 12 4.8760265111923218e-02</internalNodes>
          <leafValues>
            1.3371704518795013e-01 -9.1140896081924438e-01</leafValues></_>
        <_>
          <internalNodes>
            0 -1 33 4.7916946932673454e-03</internalNodes>
          <leafValues>
            -1.9006820023059845e-01 6.0350996255874634e-01</leafValues></_>
        <_>
          <internalNodes>
            0 -1 63 3.6812420003116131e-03</internalNodes>
          <leafValues>
            1.3879077136516571e-01 -9.1078549623489380e-01</leafValues></_>
        <_>
          <internalNodes>
            0 -1 73 -1.7985717859119177e-03</internalNodes>
          <leafValues>
            -8.8211357593536377e-01 7.3027342557907104e-02</leafValues></_>
        <_>
          <internalNodes>
            0 -1 147 -3.8047307170927525e-03</internalNodes>
          <leafValues>
            -5.7106053829193115e-01 1.2389130890369415e-01</leafValues></_>
        <_>
          <internalNodes>
            0 -1 50 5.3703988669440150e-05</internalNodes>
          <leafValues>
            -3.4675267338752747e-01 2.5298047065734863e-01</leafValues></_>
        <_>
          <internalNodes>
            0 -1 139 6.1121284961700439e-03</internalNodes>
          <leafValues>
            -1.5311762690544128e-01 5.1000434160232544e-01</leafValues></_>
        <_>
          <internalNodes>
            0 -1 136 -1.3510283082723618e-02</internalNodes>
          <leafValues>
            5.7452678680419922e-01 -1.4844001829624176e-01</leafValues></_>
        <_>
          <internalNodes>
            0 -1 101 -1.1812582612037659e-02</internalNodes>
          <leafValues>
            2.6390230655670166e-01 -4.0288814902305603e-01</leafValues></_></weakClassifiers></_>
    <!-- stage 12 -->
    <_>
      <maxWeakCount>13</maxWeakCount>
      <stageThreshold>-6.1516511440277100e-01</stageThreshold>
      <weakClassifiers>
        <_>
          <internalNodes>
            0 -1 76 -4.9826666712760925e-02</internalNodes>
          <leafValues>
            -3.6888888478279114e-01 4.5725491642951965e-01</leafValues></_>
        <_>
          <internalNodes>
            0 -1 66 4.6410951763391495e-02</internalNodes>
          <leafValues>
            1.5681123733520508e-01 -8.2113873958587646e-01</leafValues></_>
        <_>
          <internalNodes>
            0 -1 40 1.1135345324873924e-02</internalNodes>
          <leafValues>
            -1.7671088874340057e-01 5.5654329061508179e-01</leafValues></_>
        <_>
          <internalNodes>
            0 -1 15 1.2161776423454285e-02</internalNodes>
          <leafValues>
            1.3734138011932373e-01 -6.5369820594787598e-01</leafValues></_>
        <_>
          <internalNodes>
            0 -1 48 4.6677931095473468e-04</internalNodes>
          <leafValues>
            -3.5279148817062378e-01 2.6818346977233887e-01</leafValues></_>
        <_>
          <internalNodes>
            0 -1 118 1.5240024775266647e-02</internalNodes>
          <leafValues>
            -2.1502473950386047e-01 6.3335669040679932e-01</leafValues></_>
        <_>
          <internalNodes>
            0 -1 121 -3.8209971971809864e-03</internalNodes>
          <leafValues>
            5.2969992160797119e-01 -1.5751394629478455e-01</leafValues></_>
        <_>
          <internalNodes>
            0 -1 29 -2.6373170316219330e-02</internalNodes>
          <leafValues>
            -8.7962633371353149e-01 1.2651562690734863e-01</leafValues></_>
        <_>
          <internalNodes>
            0 -1 71 1.8082890659570694e-02</internalNodes>
          <leafValues>
            -1.4560885727405548e-01 7.2489631175994873e-01</leafValues></_>
        <_>
          <internalNodes>
            0 -1 55 2.4860495701432228e-02</internalNodes>
          <leafValues>
            -2.5108167529106140e-01 4.9790105223655701e-01</leafValues></_>
        <_>
          <internalNodes>
            0 -1 99 1.6517615877091885e-03</internalNodes>
          <leafValues>
            1.3024646043777466e-01 -8.8103908300399780e-01</leafValues></_>
        <_>
          <internalNodes>
            0 -1 120 2.7355926577001810e-03</internalNodes>
          <leafValues>
            -2.9160714149475098e-01 3.5179564356803894e-01</leafValues></_>
        <_>
          <internalNodes>
            0 -1 25 -1.0545857949182391e-03</internalNodes>
          <leafValues>
            3.2397902011871338e-01 -2.6575270295143127e-01</leafValues></_></weakClassifiers></_>
    <!-- stage 13 -->
    <_>
      <maxWeakCount>14</maxWeakCount>
      <stageThreshold>-8.2611453533172607e-01</stageThreshold>
      <weakClassifiers>
        <_>
          <internalNodes>
            0 -1 79 4.6361546264961362e-04</internalNodes>
          <leafValues>
            4.5752143859863281e-01 -4.0092167258262634e-01</leafValues></_>
        <_>
          <internalNodes>
            0 -1 47 2.2679485380649567e-02</internalNodes>
          <leafValues>
            -2.1404299139976501e-01 5.0938308238983154e-01</leafValues></_>
        <_>
          <internalNodes>
            0 -1 124 -3.5018231719732285e-03</internalNodes>
          <leafValues>
            6.3403940200805664e-01 -1.3944865763187408e-01</leafValues></_>
        <_>
          <internalNodes>
            0 -1 130 3.7361620925366879e-03</internalNodes>
          <leafValues>
            -2.4892194569110870e-01 4.7826182842254639e-01</leafValues></_>
        <_>
          <internalNodes>
            0 -1 143 9.1549009084701538e-03</internalNodes>
          <leafValues>
            1.0256516188383102e-01 -9.1138732433319092e-01</leafValues></_>
        <_>
          <internalNodes>
            0 -1 59 -4.9852056690724567e-05</internalNodes>
          <leafValues>
            2.6523813605308533e-01 -3.5153615474700928e-01</leafValues></_>
        <_>
          <internalNodes>
            0 -1 106 -1.6646443400532007e-03</internalNodes>
          <leafValues>
            -6.6502243280410767e-01 1.6524405777454376e-01</leafValues></_>
        <_>
          <internalNodes>
            0 -1 85 -3.2955496571958065e-03</internalNodes>
          <leafValues>
            5.1038891077041626e-01 -2.3816727101802826e-01</leafValues></_>
        <_>
          <internalNodes>
            0 -1 7 -6.6789492964744568e-02</internalNodes>
          <leafValues>
            3.8800299167633057e-01 -2.9963192343711853e-01</leafValues></_>
        <_>
          <internalNodes>
            0 -1 69 1.2662963126786053e-04</internalNodes>
          <leafValues>
            -3.1936705112457275e-01 3.1067615747451782e-01</leafValues></_>
        <_>
          <internalNodes>
            0 -1 78 4.6232162276282907e-04</internalNodes>
          <leafValues>
            1.3312011957168579e-01 -6.7852514982223511e-01</leafValues></_>
        <_>
          <internalNodes>
            0 -1 81 -5.6496225297451019e-02</internalNodes>
          <leafValues>
            4.7934097051620483e-01 -2.1154727041721344e-01</leafValues></_>
        <_>
          <internalNodes>
            0 -1 141 3.9842352271080017e-03</internalNodes>
          <leafValues>
            -1.3330361247062683e-01 7.6799309253692627e-01</leafValues></_>
        <_>
          <internalNodes>
            0 -1 110 1.0552005842328072e-02</internalNodes>
          <leafValues>
            -1.4537270367145538e-01 6.8195688724517822e-01</leafValues></_></weakClassifiers></_>
    <!-- stage 14 -->
    <_>
      <maxWeakCount>15</maxWeakCount>
      <stageThreshold>-6.5361654758453369e-01</stageThreshold>
      <weakClassifiers>
        <_>
          <internalNodes>
            0 -1 4 -4.8260226845741272e-02</internalNodes>
          <leafValues>
            -2.8571429848670959e-01 4.8424544930458069e-01</leafValues></_>
        <_>
          <internalNodes>
            0 -1 27 -1.6614731866866350e-03</internalNodes>
          <leafValues>
            3.1832495331764221e-01 -2.9352587461471558e-01</leafValues></_>
        <_>
          <internalNodes>
            0 -1 37 -5.7821664959192276e-03</internalNodes>
          <leafValues>
            6.4540308713912964e-01 -1.4439010620117188e-01</leafValues></_>
        <_>
          <internalNodes>
            0 -1 64 4.6879705041646957e-03</internalNodes>
          <leafValues>
            9.7324706614017487e-02 -7.6787251234054565e-01</leafValues></_>
        <_>
          <internalNodes>
            0 -1 56 2.0740723237395287e-02</internalNodes>
          <leafValues>
            -1.7123332619667053e-01 5.3115010261535645e-01</leafValues></_>
        <_>
          <internalNodes>
            0 -1 83 -6.4904123544692993e-02</internalNodes>
          <leafValues>
            4.6702125668525696e-01 -2.2668814659118652e-01</leafValues></_>
        <_>
          <internalNodes>
            0 -1 62 3.1250461935997009e-02</internalNodes>
          <leafValues>
            1.4008721709251404e-01 -7.3353314399719238e-01</leafValues></_>
        <_>
          <internalNodes>
            0 -1 94 1.8308717990294099e-03</internalNodes>
          <leafValues>
            -1.7702350020408630e-01 5.9175586700439453e-01</leafValues></_>
        <_>
          <internalNodes>
            0 -1 49 -3.3038571476936340e-02</internalNodes>
          <leafValues>
            1.4395233988761902e-01 -7.9297912120819092e-01</leafValues></_>
        <_>
          <internalNodes>
            0 -1 84 -1.6667579766362906e-03</internalNodes>
          <leafValues>
            4.0675765275955200e-01 -2.2895993292331696e-01</leafValues></_>
        <_>
          <internalNodes>
            0 -1 69 7.1985028625931591e-05</internalNodes>
          <leafValues>
            -3.3545589447021484e-01 2.5809615850448608e-01</leafValues></_>
        <_>
          <internalNodes>
            0 -1 111 6.5026767551898956e-03</internalNodes>
          <leafValues>
            -1.0100903362035751e-01 8.6521840095520020e-01</leafValues></_>
        <_>
          <internalNodes>
            0 -1 117 1.3177582994103432e-02</internalNodes>
          <leafValues>
            -1.5443634986877441e-01 5.6703215837478638e-01</leafValues></_>
        <_>
          <internalNodes>
            0 -1 133 1.0450685396790504e-02</internalNodes>
          <leafValues>
            -1.3424183428287506e-01 5.7258129119873047e-01</leafValues></_>
        <_>
          <internalNodes>
            0 -1 68 4.7090504085645080e-04</internalNodes>
          <leafValues>
            1.5030522644519806e-01 -6.1248916387557983e-01</leafValues></_></weakClassifiers></_></stages>
  <features>
    <_>
      <rects>
        <_>
          0 0 2 2 -1.</_>
        <_>
          1 0 1 2 2.</_></rects>
      <tilted>0</tilted></_>
    <_>
      <rects>
        <_>
          0 0 12 13 -1.</_>
        <_>
          6 0 6 13 2.</_></rects>
      <tilted>0</tilted></_>
    <_>
      <rects>
        <_>
          0 0 16 16 -1.</_>
        <_>
          8 0 8 16 2.</_></rects>
      <tilted>0</tilted></_>
    <_>
      <rects>
        <_>
          0 0 24 10 -1.</_>
        <_>
          12 0 12 10 2.</_></rects>
      <tilted>0</tilted></_>
    <_>
      <rects>
        <_>
          0 3 20 9 -1.</_>
        <_>
          10 3 10 9 2.</_></rects>
      <tilted>0</tilted></_>
    <_>
      <rects>
        <_>
          0 4 10 8 -1.</_>
        <_>
          0 8 10 4 2.</_></rects>
      <tilted>0</tilted></_>
    <_>
      <rects>
        <_>
          0 6 1 16 -1.</_>
        <_>
          0 14 1 8 2.</_></rects>
      <tilted>0</tilted></_>
    <_>
      <rects>
        <_>
          0 6 16 18 -1.</_>
        <_>
          0 6 8 9 2.</_>
        <_>
          8 15 8 9 2.</_></rects>
      <tilted>0</tilted></_>
    <_>
      <rects>
        <_>
          0 8 1 14 -1.</_>
        <_>
          0 15 1 7 2.</_></rects>
      <tilted>0</tilted></_>
    <_>
      <rects>
        <_>
          0 8 6 10 -1.</_>
        <_>
          3 8 3 10 2.</_></rects>
      <tilted>0</tilted></_>
    <_>
      <rects>
        <_>
          0 9 1 8 -1.</_>
        <_>
          0 13 1 4 2.</_></rects>
      <tilted>0</tilted></_>
    <_>
      <rects>
        <_>
          0 9 6 7 -1.</_>
        <_>
          3 9 3 7 2.</_></rects>
      <tilted>0</tilted></_>
    <_>
      <rects>
        <_>
          0 9 12 4 -1.</_>
        <_>
          6 9 6 4 2.</_></rects>
      <tilted>0</tilted></_>
    <_>
      <rects>
        <_>
          0 10 1 6 -1.</_>
        <_>
          0 13 1 3 2.</_></rects>
      <tilted>0</tilted></_>
    <_>
      <rects>
        <_>
          0 10 1 12 -1.</_>
        <_>
          0 16 1 6 2.</_></rects>
      <tilted>0</tilted></_>
    <_>
      <rects>
        <_>
          0 10 3 14 -1.</_>
        <_>
          0 17 3 7 2.</_></rects>
      <tilted>0</tilted></_>
    <_>
      <rects>
        <_>
          0 11 1 12 -1.</_>
        <_>
          0 17 1 6 2.</_></rects>
      <tilted>0</tilted></_>
    <_>
      <rects>
        <_>
          0 11 14 3 -1.</_>
        <_>
          7 11 7 3 2.</_></rects>
      <tilted>0</tilted></_>
    <_>
      <rects>
        <_>
          0 12 8 5 -1.</_>
        <_>
          4 12 4 5 2.</_></rects>
      <tilted>0</tilted></_>
    <_>
      <rects>
        <_>
          0 13 8 9 -1.</_>
        <_>
          0 16 8 3 2.</_></rects>
      <tilted>0</tilted></_>
    <_>
      <rects>
        <_>
          0 14 8 2 -1.</_>
        <_>
          4 14 4 2 2.</_></rects>
      <tilted>0</tilted></_>
    <_>
      <rects>
        <_>
          0 16 1 8 -1.</_>
        <_>
          0 20 1 4 2.</_></rects>
      <tilted>0</tilted></_>
    <_>
      <rects>
        <_>
          0 22 6 2 -1.</_>
        <_>
          3 22 3 2 2.</_></rects>
      <tilted>0</tilted></_>
    <_>
      <rects>
        <_>
          0 23 4 1 -1.</_>
        <_>
          2 23 2 1 2.</_></rects>
      <tilted>0</tilted></_>
    <_>
      <rects>
        <_>
          0 23 6 1 -1.</_>
        <_>
          3 23 3 1 2.</_></rects>
      <tilted>0</tilted></_>
    <_>
      <rects>
        <_>
          1 5 6 4 -1.</_>
        <_>
          1 5 3 2 2.</_>
        <_>
          4 7 3 2 2.</_></rects>
      <tilted>0</tilted></_>
    <_>
      <rects>
        <_>
          1 23 6 1 -1.</_>
        <_>
          4 23 3 1 2.</_></rects>
      <tilted>0</tilted></_>
    <_>
      <rects>
        <_>
          2 0 12 4 -1.</_>
        <_>
          8 0 6 4 2.</_></rects>
      <tilted>0</tilted></_>
    <_>
      <rects>
        <_>
          2 4 4 10 -1.</_>
        <_>
          2 9 4 5 2.</_></rects>
      <tilted>0</tilted></_>
    <_>
      <rects>
        <_>
          2 7 20 6 -1.</_>
        <_>
          2 7 10 3 2.</_>
        <_>
          12 10 10 3 2.</_></rects>
      <tilted>0</tilted></_>
    <_>
      <rects>
        <_>
          2 8 4 8 -1.</_>
        <_>
          4 8 2 8 2.</_></rects>
      <tilted>0</tilted></_>
    <_>
      <rects>
        <_>
          2 8 10 10 -1.</_>
        <_>
          2 8 5 5 2.</_>
        <_>
          7 13 5 5 2.</_></rects>
      <tilted>0</tilted></_>
    <_>
      <rects>
        <_>
          2 17 12 3 -1.</_>
        <_>
          2 18 12 1 2.</_></rects>
      <tilted>0</tilted></_>
    <_>
      <rects>
        <_>
          3 8 2 6 -1.</_>
        <_>
          3 8 1 3 2.</_>
        <_>
          4 11 1 3 2.</_></rects>
      <tilted>0</tilted></_>
    <_>
      <rects>
        <_>
          3 8 8 12 -1.</_>
        <_>
          3 8 4 6 2.</_>
        <_>
          7 14 4 6 2.</_></rects>
      <tilted>0</tilted></_>
    <_>
      <rects>
        <_>
          3 10 2 1 -1.</_>
        <_>
          4 10 1 1 2.</_></rects>
      <tilted>0</tilted></_>
    <_>
      <rects>
        <_>
          3 10 4 8 -1.</_>
        <_>
          3 10 2 4 2.</_>
        <_>
          5 14 2 4 2.</_></rects>
      <tilted>0</tilted></_>
    <_>
      <rects>
        <_>
          3 13 2 2 -1.</_>
        <_>
          4 13 1 2 2.</_></rects>
      <tilted>0</tilted></_>
    <_>
      <rects>
        <_>
          4 1 6 14 -1.</_>
        <_>
          4 1 3 7 2.</_>
        <_>
          7 8 3 7 2.</_></rects>
      <tilted>0</tilted></_>
    <_>
      <rects>
        <_>
          4 5 2 8 -1.</_>
        <_>
          4 5 1 4 2.</_>
        <_>
          5 9 1 4 2.</_></rects>
      <tilted>0</tilted></_>
    <_>
      <rects>
        <_>
          4 6 2 8 -1.</_>
        <_>
          4 6 1 4 2.</_>
        <_>
          5 10 1 4 2.</_></rects>
      <tilted>0</tilted></_>
    <_>
      <rects>
        <_>
          4 6 8 16 -1.</_>
        <_>
          4 6 4 8 2.</_>
        <_>
          8 14 4 8 2.</_></rects>
      <tilted>0</tilted></_>
    <_>
      <rects>
        <_>
          4 9 4 6 -1.</_>
        <_>
          6 9 2 6 2.</_></rects>
      <tilted>0</tilted></_>
    <_>
      <rects>
        <_>
          4 9 4 12 -1.</_>
        <_>
          4 9 2 6 2.</_>
        <_>
          6 15 2 6 2.</_></rects>
      <tilted>0</tilted></_>
    <_>
      <rects>
        <_>
          4 10 2 4 -1.</_>
        <_>
          4 10 1 2 2.</_>
        <_>
          5 12 1 2 2.</_></rects>
      <tilted>0</tilted></_>
    <_>
      <rects>
        <_>
          4 10 2 8 -1.</_>
        <_>
          4 10 1 4 2.</_>
        <_>
          5 14 1 4 2.</_></rects>
      <tilted>0</tilted></_>
    <_>
      <rects>
        <_>
          4 10 6 6 -1.</_>
        <_>
          7 10 3 6 2.</_></rects>
      <tilted>0</tilted></_>
    <_>
      <rects>
        <_>
          4 14 5 10 -1.</_>
        <_>
          4 19 5 5 2.</_></rects>
      <tilted>0</tilted></_>
    <_>
      <rects>
        <_>
          4 15 4 4 -1.</_>
        <_>
          4 17 4 2 2.</_></rects>
      <tilted>0</tilted></_>
    <_>
      <rects>
        <_>
          5 11 3 6 -1.</_>
        <_>
          6 11 1 6 2.</_></rects>
      <tilted>0</tilted></_>
    <_>
      <rects>
        <_>
          5 15 2 3 -1.</_>
        <_>
          6 15 1 3 2.</_></rects>
      <tilted>0</tilted></_>
    <_>
      <rects>
        <_>
          7 6 2 12 -1.</_>
        <_>
          7 10 2 4 2.</_></rects>
      <tilted>0</tilted></_>
    <_>
      <rects>
        <_>
          7 6 4 14 -1.</_>
        <_>
          7 13 4 7 2.</_></rects>
      <tilted>0</tilted></_>
    <_>
      <rects>
        <_>
          7 8 5 10 -1.</_>
        <_>
          7 13 5 5 2.</_></rects>
      <tilted>0</tilted></_>
    <_>
      <rects>
        <_>
          7 9 8 4 -1.</_>
        <_>
          11 9 4 4 2.</_></rects>
      <tilted>0</tilted></_>
    <_>
      <rects>
        <_>
          7 9 12 8 -1.</_>
        <_>
          7 9 6 4 2.</_>
        <_>
          13 13 6 4 2.</_></rects>
      <tilted>0</tilted></_>
    <_>
      <rects>
        <_>
          7 10 3 8 -1.</_>
        <_>
          7 14 3 4 2.</_></rects>
      <tilted>0</tilted></_>
    <_>
      <rects>
        <_>
          7 10 14 8 -1.</_>
        <_>
          7 10 7 4 2.</_>
        <_>
          14 14 7 4 2.</_></rects>
      <tilted>0</tilted></_>
    <_>
      <rects>
        <_>
          7 11 5 6 -1.</_>
        <_>
          7 14 5 3 2.</_></rects>
      <tilted>0</tilted></_>
    <_>
      <rects>
        <_>
          7 14 4 1 -1.</_>
        <_>
          9 14 2 1 2.</_></rects>
      <tilted>0</tilted></_>
    <_>
      <rects>
        <_>
          8 5 12 14 -1.</_>
        <_>
          14 5 6 14 2.</_></rects>
      <tilted>0</tilted></_>
    <_>
      <rects>
        <_>
          8 5 14 14 -1.</_>
        <_>
          15 5 7 14 2.</_></rects>
      <tilted>0</tilted></_>
    <_>
      <rects>
        <_>
          8 6 12 13 -1.</_>
        <_>
          14 6 6 13 2.</_></rects>
      <tilted>0</tilted></_>
    <_>
      <rects>
        <_>
          8 8 4 4 -1.</_>
        <_>
          8 8 2 2 2.</_>
        <_>
          10 10 2 2 2.</_></rects>
      <tilted>0</tilted></_>
    <_>
      <rects>
        <_>
          8 8 4 4 -1.</_>
        <_>
          10 8 2 4 2.</_></rects>
      <tilted>0</tilted></_>
    <_>
      <rects>
        <_>
          8 8 12 10 -1.</_>
        <_>
          14 8 6 10 2.</_></rects>
      <tilted>0</tilted></_>
    <_>
      <rects>
        <_>
          8 8 16 9 -1.</_>
        <_>
          16 8 8 9 2.</_></rects>
      <tilted>0</tilted></_>
    <_>
      <rects>
        <_>
          8 11 4 6 -1.</_>
        <_>
          8 14 4 3 2.</_></rects>
      <tilted>0</tilted></_>
    <_>
      <rects>
        <_>
          8 15 2 1 -1.</_>
        <_>
          9 15 1 1 2.</_></rects>
      <tilted>0</tilted></_>
    <_>
      <rects>
        <_>
          8 15 2 4 -1.</_>
        <_>
          8 17 2 2 2.</_></rects>
      <tilted>0</tilted></_>
    <_>
      <rects>
        <_>
          9 3 7 12 -1.</_>
        <_>
          9 9 7 6 2.</_></rects>
      <tilted>0</tilted></_>
    <_>
      <rects>
        <_>
          9 6 1 14 -1.</_>
        <_>
          9 13 1 7 2.</_></rects>
      <tilted>0</tilted></_>
    <_>
      <rects>
        <_>
          9 7 12 12 -1.</_>
        <_>
          15 7 6 12 2.</_></rects>
      <tilted>0</tilted></_>
    <_>
      <rects>
        <_>
          9 8 2 4 -1.</_>
        <_>
          9 8 1 2 2.</_>
        <_>
          10 10 1 2 2.</_></rects>
      <tilted>0</tilted></_>
    <_>
      <rects>
        <_>
          9 8 6 4 -1.</_>
        <_>
          12 8 3 4 2.</_></rects>
      <tilted>0</tilted></_>
    <_>
      <rects>
        <_>
          9 9 2 8 -1.</_>
        <_>
          9 13 2 4 2.</_></rects>
      <tilted>0</tilted></_>
    <_>
      <rects>
        <_>
          9 11 14 7 -1.</_>
        <_>
          16 11 7 7 2.</_></rects>
      <tilted>0</tilted></_>
    <_>
      <rects>
        <_>
          9 14 8 2 -1.</_>
        <_>
          13 14 4 2 2.</_></rects>
      <tilted>0</tilted></_>
    <_>
      <rects>
        <_>
          9 15 1 2 -1.</_>
        <_>
          9 16 1 1 2.</_></rects>
      <tilted>0</tilted></_>
    <_>
      <rects>
        <_>
          9 16 1 2 -1.</_>
        <_>
          9 17 1 1 2.</_></rects>
      <tilted>0</tilted></_>
    <_>
      <rects>
        <_>
          10 4 1 16 -1.</_>
        <_>
          10 12 1 8 2.</_></rects>
      <tilted>0</tilted></_>
    <_>
      <rects>
        <_>
          10 4 14 18 -1.</_>
        <_>
          10 4 7 9 2.</_>
        <_>
          17 13 7 9 2.</_></rects>
      <tilted>0</tilted></_>
    <_>
      <rects>
        <_>
          10 6 6 7 -1.</_>
        <_>
          13 6 3 7 2.</_></rects>
      <tilted>0</tilted></_>
    <_>
      <rects>
        <_>
          10 9 8 12 -1.</_>
        <_>
          10 15 8 6 2.</_></rects>
      <tilted>0</tilted></_>
    <_>
      <rects>
        <_>
          10 13 4 2 -1.</_>
        <_>
          10 13 2 1 2.</_>
        <_>
          12 14 2 1 2.</_></rects>
      <tilted>0</tilted></_>
    <_>
      <rects>
        <_>
          10 13 6 2 -1.</_>
        <_>
          10 13 3 1 2.</_>
        <_>
          13 14 3 1 2.</_></rects>
      <tilted>0</tilted></_>
    <_>
      <rects>
        <_>
          10 14 6 1 -1.</_>
        <_>
          13 14 3 1 2.</_></rects>
      <tilted>0</tilted></_>
    <_>
      <rects>
        <_>
          10 15 2 2 -1.</_>
        <_>
          10 16 2 1 2.</_></rects>
      <tilted>0</tilted></_>
    <_>
      <rects>
        <_>
          10 16 1 4 -1.</_>
        <_>
          10 18 1 2 2.</_></rects>
      <tilted>0</tilted></_>
    <_>
      <rects>
        <_>
          11 9 2 4 -1.</_>
        <_>
          11 9 1 2 2.</_>
        <_>
          12 11 1 2 2.</_></rects>
      <tilted>0</tilted></_>
    <_>
      <rects>
        <_>
          11 9 4 1 -1.</_>
        <_>
          13 9 2 1 2.</_></rects>
      <tilted>0</tilted></_>
    <_>
      <rects>
        <_>
          11 9 4 2 -1.</_>
        <_>
          13 9 2 2 2.</_></rects>
      <tilted>0</tilted></_>
    <_>
      <rects>
        <_>
          11 11 4 2 -1.</_>
        <_>
          13 11 2 2 2.</_></rects>
      <tilted>0</tilted></_>
    <_>
      <rects>
        <_>
          11 13 1 2 -1.</_>
        <_>
          11 14 1 1 2.</_></rects>
      <tilted>0</tilted></_>
    <_>
      <rects>
        <_>
          11 13 2 2 -1.</_>
        <_>
          11 13 1 1 2.</_>
        <_>
          12 14 1 1 2.</_></rects>
      <tilted>0</tilted></_>
    <_>
      <rects>
        <_>
          11 13 2 2 -1.</_>
        <_>
          11 14 2 1 2.</_></rects>
      <tilted>0</tilted></_>
    <_>
      <rects>
        <_>
          11 13 4 2 -1.</_>
        <_>
          11 13 2 1 2.</_>
        <_>
          13 14 2 1 2.</_></rects>
      <tilted>0</tilted></_>
    <_>
      <rects>
        <_>
          13 6 6 14 -1.</_>
        <_>
          13 13 6 7 2.</_></rects>
      <tilted>0</tilted></_>
    <_>
      <rects>
        <_>
          13 6 9 18 -1.</_>
        <_>
          13 15 9 9 2.</_></rects>
      <tilted>0</tilted></_>
    <_>
      <rects>
        <_>
          13 9 2 4 -1.</_>
        <_>
          13 9 1 2 2.</_>
        <_>
          14 11 1 2 2.</_></rects>
      <tilted>0</tilted></_>
    <_>
      <rects>
        <_>
          13 11 8 12 -1.</_>
        <_>
          13 11 4 6 2.</_>
        <_>
          17 17 4 6 2.</_></rects>
      <tilted>0</tilted></_>
    <_>
      <rects>
        <_>
          14 7 10 14 -1.</_>
        <_>
          14 14 10 7 2.</_></rects>
      <tilted>0</tilted></_>
    <_>
      <rects>
        <_>
          14 11 6 4 -1.</_>
        <_>
          17 11 3 4 2.</_></rects>
      <tilted>0</tilted></_>
    <_>
      <rects>
        <_>
          15 5 9 10 -1.</_>
        <_>
          15 10 9 5 2.</_></rects>
      <tilted>0</tilted></_>
    <_>
      <rects>
        <_>
          15 9 1 6 -1.</_>
        <_>
          15 12 1 3 2.</_></rects>
      <tilted>0</tilted></_>
    <_>
      <rects>
        <_>
          15 10 6 14 -1.</_>
        <_>
          15 10 3 7 2.</_>
        <_>
          18 17 3 7 2.</_></rects>
      <tilted>0</tilted></_>
    <_>
      <rects>
        <_>
          15 11 1 4 -1.</_>
        <_>
          15 13 1 2 2.</_></rects>
      <tilted>0</tilted></_>
    <_>
      <rects>
        <_>
          15 15 8 4 -1.</_>
        <_>
          15 15 4 2 2.</_>
        <_>
          19 17 4 2 2.</_></rects>
      <tilted>0</tilted></_>
    <_>
      <rects>
        <_>
          16 5 5 12 -1.</_>
        <_>
          16 11 5 6 2.</_></rects>
      <tilted>0</tilted></_>
    <_>
      <rects>
        <_>
          16 9 4 6 -1.</_>
        <_>
          18 9 2 6 2.</_></rects>
      <tilted>0</tilted></_>
    <_>
      <rects>
        <_>
          16 16 4 6 -1.</_>
        <_>
          16 16 2 3 2.</_>
        <_>
          18 19 2 3 2.</_></rects>
      <tilted>0</tilted></_>
    <_>
      <rects>
        <_>
          17 5 2 4 -1.</_>
        <_>
          17 5 1 2 2.</_>
        <_>
          18 7 1 2 2.</_></rects>
      <tilted>0</tilted></_>
    <_>
      <rects>
        <_>
          17 7 2 2 -1.</_>
        <_>
          18 7 1 2 2.</_></rects>
      <tilted>0</tilted></_>
    <_>
      <rects>
        <_>
          17 8 2 2 -1.</_>
        <_>
          17 8 1 1 2.</_>
        <_>
          18 9 1 1 2.</_></rects>
      <tilted>0</tilted></_>
    <_>
      <rects>
        <_>
          17 12 2 4 -1.</_>
        <_>
          17 12 1 2 2.</_>
        <_>
          18 14 1 2 2.</_></rects>
      <tilted>0</tilted></_>
    <_>
      <rects>
        <_>
          17 13 2 2 -1.</_>
        <_>
          18 13 1 2 2.</_></rects>
      <tilted>0</tilted></_>
    <_>
      <rects>
        <_>
          17 13 2 4 -1.</_>
        <_>
          17 13 1 2 2.</_>
        <_>
          18 15 1 2 2.</_></rects>
      <tilted>0</tilted></_>
    <_>
      <rects>
        <_>
          18 2 4 9 -1.</_>
        <_>
          20 2 2 9 2.</_></rects>
      <tilted>0</tilted></_>
    <_>
      <rects>
        <_>
          18 3 2 12 -1.</_>
        <_>
          18 3 1 6 2.</_>
        <_>
          19 9 1 6 2.</_></rects>
      <tilted>0</tilted></_>
    <_>
      <rects>
        <_>
          18 4 2 10 -1.</_>
        <_>
          18 4 1 5 2.</_>
        <_>
          19 9 1 5 2.</_></rects>
      <tilted>0</tilted></_>
    <_>
      <rects>
        <_>
          18 5 2 10 -1.</_>
        <_>
          18 5 1 5 2.</_>
        <_>
          19 10 1 5 2.</_></rects>
      <tilted>0</tilted></_>
    <_>
      <rects>
        <_>
          18 6 2 8 -1.</_>
        <_>
          18 6 1 4 2.</_>
        <_>
          19 10 1 4 2.</_></rects>
      <tilted>0</tilted></_>
    <_>
      <rects>
        <_>
          18 7 2 1 -1.</_>
        <_>
          19 7 1 1 2.</_></rects>
      <tilted>0</tilted></_>
    <_>
      <rects>
        <_>
          18 8 2 6 -1.</_>
        <_>
          18 8 1 3 2.</_>
        <_>
          19 11 1 3 2.</_></rects>
      <tilted>0</tilted></_>
    <_>
      <rects>
        <_>
          18 9 2 4 -1.</_>
        <_>
          18 9 1 2 2.</_>
        <_>
          19 11 1 2 2.</_></rects>
      <tilted>0</tilted></_>
    <_>
      <rects>
        <_>
          18 10 2 2 -1.</_>
        <_>
          19 10 1 2 2.</_></rects>
      <tilted>0</tilted></_>
    <_>
      <rects>
        <_>
          18 10 2 8 -1.</_>
        <_>
          18 10 1 4 2.</_>
        <_>
          19 14 1 4 2.</_></rects>
      <tilted>0</tilted></_>
    <_>
      <rects>
        <_>
          18 10 2 5 -1.</_>
        <_>
          19 10 1 5 2.</_></rects>
      <tilted>0</tilted></_>
    <_>
      <rects>
        <_>
          18 11 2 4 -1.</_>
        <_>
          18 11 1 2 2.</_>
        <_>
          19 13 1 2 2.</_></rects>
      <tilted>0</tilted></_>
    <_>
      <rects>
        <_>
          18 11 2 4 -1.</_>
        <_>
          19 11 1 4 2.</_></rects>
      <tilted>0</tilted></_>
    <_>
      <rects>
        <_>
          18 12 2 2 -1.</_>
        <_>
          19 12 1 2 2.</_></rects>
      <tilted>0</tilted></_>
    <_>
      <rects>
        <_>
          18 12 2 4 -1.</_>
        <_>
          18 12 1 2 2.</_>
        <_>
          19 14 1 2 2.</_></rects>
      <tilted>0</tilted></_>
    <_>
      <rects>
        <_>
          18 13 4 2 -1.</_>
        <_>
          20 13 2 2 2.</_></rects>
      <tilted>0</tilted></_>
    <_>
      <rects>
        <_>
          19 4 2 16 -1.</_>
        <_>
          19 4 1 8 2.</_>
        <_>
          20 12 1 8 2.</_></rects>
      <tilted>0</tilted></_>
    <_>
      <rects>
        <_>
          19 4 2 12 -1.</_>
        <_>
          19 10 2 6 2.</_></rects>
      <tilted>0</tilted></_>
    <_>
      <rects>
        <_>
          19 8 2 4 -1.</_>
        <_>
          20 8 1 4 2.</_></rects>
      <tilted>0</tilted></_>
    <_>
      <rects>
        <_>
          19 9 4 4 -1.</_>
        <_>
          21 9 2 4 2.</_></rects>
      <tilted>0</tilted></_>
    <_>
      <rects>
        <_>
          19 10 2 1 -1.</_>
        <_>
          20 10 1 1 2.</_></rects>
      <tilted>0</tilted></_>
    <_>
      <rects>
        <_>
          19 10 4 3 -1.</_>
        <_>
          21 10 2 3 2.</_></rects>
      <tilted>0</tilted></_>
    <_>
      <rects>
        <_>
          20 3 2 12 -1.</_>
        <_>
          21 3 1 12 2.</_></rects>
      <tilted>0</tilted></_>
    <_>
      <rects>
        <_>
          20 4 2 10 -1.</_>
        <_>
          20 4 1 5 2.</_>
        <_>
          21 9 1 5 2.</_></rects>
      <tilted>0</tilted></_>
    <_>
      <rects>
        <_>
          20 8 2 4 -1.</_>
        <_>
          20 8 1 2 2.</_>
        <_>
          21 10 1 2 2.</_></rects>
      <tilted>0</tilted></_>
    <_>
      <rects>
        <_>
          20 21 4 3 -1.</_>
        <_>
          22 21 2 3 2.</_></rects>
      <tilted>0</tilted></_>
    <_>
      <rects>
        <_>
          23 0 1 18 -1.</_>
        <_>
          23 9 1 9 2.</_></rects>
      <tilted>0</tilted></_>
    <_>
      <rects>
        <_>
          23 9 1 8 -1.</_>
        <_>
          23 13 1 4 2.</_></rects>
      <tilted>0</tilted></_>
    <_>
      <rects>
        <_>
          23 10 1 12 -1.</_>
        <_>
          23 16 1 6 2.</_></rects>
      <tilted>0</tilted></_>
    <_>
      <rects>
        <_>
          23 10 1 14 -1.</_>
        <_>
          23 17 1 7 2.</_></rects>
      <tilted>0</tilted></_>
    <_>
      <rects>
        <_>
          23 11 1 10 -1.</_>
        <_>
          23 16 1 5 2.</_></rects>
      <tilted>0</tilted></_>
    <_>
      <rects>
        <_>
          23 11 1 12 -1.</_>
        <_>
          23 17 1 6 2.</_></rects>
      <tilted>0</tilted></_></features></cascade>
</opencv_storage>
