<?xml version="1.0"?>
<opencv_storage>
<stage3>
  <maxWeakCount>9</maxWeakCount>
  <stageThreshold>-5.1773262023925781e-01</stageThreshold>
  <weakClassifiers>
    <_>
      <internalNodes>
        0 -1 162277 4.8219952732324600e-03</internalNodes>
      <leafValues>
        5.0115120410919189e-01 -7.7664977312088013e-01</leafValues></_>
    <_>
      <internalNodes>
        0 -1 56213 -2.3353189229965210e-02</internalNodes>
      <leafValues>
        7.9801881313323975e-01 -2.5643950700759888e-01</leafValues></_>
    <_>
      <internalNodes>
        0 -1 154106 8.0954786390066147e-03</internalNodes>
      <leafValues>
        -2.1329699456691742e-01 8.0190891027450562e-01</leafValues></_>
    <_>
      <internalNodes>
        0 -1 162266 -6.3705430366098881e-03</internalNodes>
      <leafValues>
        -7.0391809940338135e-01 2.6442286372184753e-01</leafValues></_>
    <_>
      <internalNodes>
        0 -1 54269 8.4482422098517418e-03</internalNodes>
      <leafValues>
        -2.2549994289875031e-01 8.2688969373703003e-01</leafValues></_>
    <_>
      <internalNodes>
        0 -1 93500 5.3487811237573624e-02</internalNodes>
      <leafValues>
        1.8543161451816559e-01 -8.9429855346679688e-01</leafValues></_>
    <_>
      <internalNodes>
        0 -1 456 6.6400185227394104e-02</internalNodes>
      <leafValues>
        1.6422221064567566e-01 -8.7238645553588867e-01</leafValues></_>
    <_>
      <internalNodes>
        0 -1 86431 -7.9530682414770126e-03</internalNodes>
      <leafValues>
        -7.5349056720733643e-01 1.9615490734577179e-01</leafValues></_>
    <_>
      <internalNodes>
        0 -1 7438 3.6318765487521887e-03</internalNodes>
      <leafValues>
        1.6919387876987457e-01 -7.6277625560760498e-01</leafValues></_></weakClassifiers></stage3>
</opencv_storage>
