<?xml version="1.0"?>
<opencv_storage>
<stage10>
  <maxWeakCount>15</maxWeakCount>
  <stageThreshold>-7.8433763980865479e-01</stageThreshold>
  <weakClassifiers>
    <_>
      <internalNodes>
        0 -1 103012 -6.1787731945514679e-02</internalNodes>
      <leafValues>
        -4.7474747896194458e-01 4.5622119307518005e-01</leafValues></_>
    <_>
      <internalNodes>
        0 -1 45542 -3.9844308048486710e-03</internalNodes>
      <leafValues>
        8.5830295085906982e-01 -1.2362969666719437e-01</leafValues></_>
    <_>
      <internalNodes>
        0 -1 113560 5.7731129345484078e-05</internalNodes>
      <leafValues>
        -3.3357566595077515e-01 3.2549536228179932e-01</leafValues></_>
    <_>
      <internalNodes>
        0 -1 11895 2.0827362313866615e-03</internalNodes>
      <leafValues>
        1.3363210856914520e-01 -6.6949671506881714e-01</leafValues></_>
    <_>
      <internalNodes>
        0 -1 56695 1.9595094490796328e-03</internalNodes>
      <leafValues>
        -2.4371658265590668e-01 4.5395311713218689e-01</leafValues></_>
    <_>
      <internalNodes>
        0 -1 105882 5.1663361955434084e-04</internalNodes>
      <leafValues>
        1.6055935621261597e-01 -6.7355453968048096e-01</leafValues></_>
    <_>
      <internalNodes>
        0 -1 9461 -7.2972606867551804e-03</internalNodes>
      <leafValues>
        -7.0439630746841431e-01 1.3578008115291595e-01</leafValues></_>
    <_>
      <internalNodes>
        0 -1 162277 2.0976085215806961e-03</internalNodes>
      <leafValues>
        1.3081139326095581e-01 -6.8792706727981567e-01</leafValues></_>
    <_>
      <internalNodes>
        0 -1 137717 -1.3032507151365280e-02</internalNodes>
      <leafValues>
        4.5878106355667114e-01 -2.3117819428443909e-01</leafValues></_>
    <_>
      <internalNodes>
        0 -1 156846 -5.8729154989123344e-03</internalNodes>
      <leafValues>
        5.8891654014587402e-01 -2.4538481235504150e-01</leafValues></_>
    <_>
      <internalNodes>
        0 -1 109155 -1.2784993276000023e-02</internalNodes>
      <leafValues>
        5.0750482082366943e-01 -1.8671202659606934e-01</leafValues></_>
    <_>
      <internalNodes>
        0 -1 119881 1.6404773341491818e-03</internalNodes>
      <leafValues>
        -2.2157461941242218e-01 6.5331345796585083e-01</leafValues></_>
    <_>
      <internalNodes>
        0 -1 53575 5.7348092086613178e-03</internalNodes>
      <leafValues>
        -1.6305758059024811e-01 5.5138421058654785e-01</leafValues></_>
    <_>
      <internalNodes>
        0 -1 156042 1.3039665296673775e-02</internalNodes>
      <leafValues>
        -1.2406939268112183e-01 7.3556816577911377e-01</leafValues></_>
    <_>
      <internalNodes>
        0 -1 143447 4.8796832561492920e-03</internalNodes>
      <leafValues>
        -2.0031666755676270e-01 4.4569218158721924e-01</leafValues></_></weakClassifiers></stage10>
</opencv_storage>
