<?xml version="1.0"?>
<opencv_storage>
<stage7>
  <maxWeakCount>13</maxWeakCount>
  <stageThreshold>-5.4190671443939209e-01</stageThreshold>
  <weakClassifiers>
    <_>
      <internalNodes>
        0 -1 100972 -4.3689854443073273e-02</internalNodes>
      <leafValues>
        -6.7213112115859985e-01 4.7304481267929077e-01</leafValues></_>
    <_>
      <internalNodes>
        0 -1 113138 4.8460448160767555e-03</internalNodes>
      <leafValues>
        -1.7993831634521484e-01 6.7706876993179321e-01</leafValues></_>
    <_>
      <internalNodes>
        0 -1 156792 -3.7427451461553574e-03</internalNodes>
      <leafValues>
        8.7424749135971069e-01 -1.1326711624860764e-01</leafValues></_>
    <_>
      <internalNodes>
        0 -1 93457 3.7500023841857910e-02</internalNodes>
      <leafValues>
        1.7534838616847992e-01 -7.9856139421463013e-01</leafValues></_>
    <_>
      <internalNodes>
        0 -1 156559 4.5357993803918362e-03</internalNodes>
      <leafValues>
        -1.9407166540622711e-01 6.8849897384643555e-01</leafValues></_>
    <_>
      <internalNodes>
        0 -1 162267 3.2998961396515369e-03</internalNodes>
      <leafValues>
        1.6861638426780701e-01 -7.7632099390029907e-01</leafValues></_>
    <_>
      <internalNodes>
        0 -1 119916 3.7323273718357086e-03</internalNodes>
      <leafValues>
        -1.8533933162689209e-01 6.9391286373138428e-01</leafValues></_>
    <_>
      <internalNodes>
        0 -1 7553 -3.2123949378728867e-02</internalNodes>
      <leafValues>
        5.0154310464859009e-01 -3.3023998141288757e-01</leafValues></_>
    <_>
      <internalNodes>
        0 -1 154564 -6.2377341091632843e-03</internalNodes>
      <leafValues>
        7.4419814348220825e-01 -1.6494080424308777e-01</leafValues></_>
    <_>
      <internalNodes>
        0 -1 145844 -1.5920803416520357e-03</internalNodes>
      <leafValues>
        2.6791056990623474e-01 -5.1051890850067139e-01</leafValues></_>
    <_>
      <internalNodes>
        0 -1 153549 -2.5164987891912460e-03</internalNodes>
      <leafValues>
        8.1788182258605957e-01 -1.3995632529258728e-01</leafValues></_>
    <_>
      <internalNodes>
        0 -1 118634 1.4404838439077139e-03</internalNodes>
      <leafValues>
        1.6102614998817444e-01 -8.1178092956542969e-01</leafValues></_>
    <_>
      <internalNodes>
        0 -1 54467 -4.9851529300212860e-02</internalNodes>
      <leafValues>
        5.6071919202804565e-01 -2.1417571604251862e-01</leafValues></_></weakClassifiers></stage7>
</opencv_storage>
