<?xml version="1.0"?>
<opencv_storage>
<stage6>
  <maxWeakCount>13</maxWeakCount>
  <stageThreshold>-7.5158411264419556e-01</stageThreshold>
  <weakClassifiers>
    <_>
      <internalNodes>
        0 -1 13374 1.7824587412178516e-03</internalNodes>
      <leafValues>
        4.6388682723045349e-01 -7.8343951702117920e-01</leafValues></_>
    <_>
      <internalNodes>
        0 -1 54269 6.9544287398457527e-03</internalNodes>
      <leafValues>
        -1.8344376981258392e-01 7.2017145156860352e-01</leafValues></_>
    <_>
      <internalNodes>
        0 -1 162251 -2.7958960272371769e-03</internalNodes>
      <leafValues>
        -6.8213218450546265e-01 2.1004675328731537e-01</leafValues></_>
    <_>
      <internalNodes>
        0 -1 162251 2.5809979997575283e-03</internalNodes>
      <leafValues>
        1.5092265605926514e-01 -7.3724663257598877e-01</leafValues></_>
    <_>
      <internalNodes>
        0 -1 159712 -3.6394675262272358e-03</internalNodes>
      <leafValues>
        -7.6547282934188843e-01 1.3560563325881958e-01</leafValues></_>
    <_>
      <internalNodes>
        0 -1 142517 4.6827927231788635e-02</internalNodes>
      <leafValues>
        -1.7673757672309875e-01 8.2628577947616577e-01</leafValues></_>
    <_>
      <internalNodes>
        0 -1 152928 1.0230975225567818e-02</internalNodes>
      <leafValues>
        -2.5147700309753418e-01 6.6693699359893799e-01</leafValues></_>
    <_>
      <internalNodes>
        0 -1 118674 1.5609468100592494e-03</internalNodes>
      <leafValues>
        2.2954086959362030e-01 -8.4290742874145508e-01</leafValues></_>
    <_>
      <internalNodes>
        0 -1 154252 3.3336477354168892e-03</internalNodes>
      <leafValues>
        -2.2954982519149780e-01 6.5293246507644653e-01</leafValues></_>
    <_>
      <internalNodes>
        0 -1 110266 -8.6720427498221397e-03</internalNodes>
      <leafValues>
        -6.6895854473114014e-01 1.9860999286174774e-01</leafValues></_>
    <_>
      <internalNodes>
        0 -1 8152 -2.6331061962991953e-03</internalNodes>
      <leafValues>
        -6.0304087400436401e-01 1.9820669293403625e-01</leafValues></_>
    <_>
      <internalNodes>
        0 -1 8819 1.1822732631117105e-03</internalNodes>
      <leafValues>
        2.1015571057796478e-01 -5.9900975227355957e-01</leafValues></_>
    <_>
      <internalNodes>
        0 -1 32626 -8.8661313056945801e-03</internalNodes>
      <leafValues>
        3.5883739590644836e-01 -3.5123655200004578e-01</leafValues></_></weakClassifiers></stage6>
</opencv_storage>
