<?xml version="1.0"?>
<opencv_storage>
<stage5>
  <maxWeakCount>10</maxWeakCount>
  <stageThreshold>-5.9831464290618896e-01</stageThreshold>
  <weakClassifiers>
    <_>
      <internalNodes>
        0 -1 56802 1.0073419660329819e-02</internalNodes>
      <leafValues>
        -7.0503599941730499e-02 6.8198758363723755e-01</leafValues></_>
    <_>
      <internalNodes>
        0 -1 151133 -3.8111167959868908e-03</internalNodes>
      <leafValues>
        8.2075542211532593e-01 -1.0779558122158051e-01</leafValues></_>
    <_>
      <internalNodes>
        0 -1 103668 1.2930294498801231e-02</internalNodes>
      <leafValues>
        -2.0198349654674530e-01 7.6335495710372925e-01</leafValues></_>
    <_>
      <internalNodes>
        0 -1 96182 -1.8779790028929710e-02</internalNodes>
      <leafValues>
        6.9394087791442871e-01 -2.7645516395568848e-01</leafValues></_>
    <_>
      <internalNodes>
        0 -1 154091 5.2196364849805832e-03</internalNodes>
      <leafValues>
        -2.1949739754199982e-01 7.7916318178176880e-01</leafValues></_>
    <_>
      <internalNodes>
        0 -1 154252 4.2505296878516674e-03</internalNodes>
      <leafValues>
        -7.5152248144149780e-02 8.5931533575057983e-01</leafValues></_>
    <_>
      <internalNodes>
        0 -1 150989 2.6399276684969664e-03</internalNodes>
      <leafValues>
        -1.8040400743484497e-01 6.5419191122055054e-01</leafValues></_>
    <_>
      <internalNodes>
        0 -1 119881 3.6014853976666927e-03</internalNodes>
      <leafValues>
        -1.2239778041839600e-01 9.1177117824554443e-01</leafValues></_>
    <_>
      <internalNodes>
        0 -1 10148 -1.9981306046247482e-02</internalNodes>
      <leafValues>
        4.6660688519477844e-01 -2.8625592589378357e-01</leafValues></_>
    <_>
      <internalNodes>
        0 -1 13376 -1.4988201437518001e-03</internalNodes>
      <leafValues>
        -6.3530260324478149e-01 1.8963937461376190e-01</leafValues></_></weakClassifiers></stage5>
</opencv_storage>
