<?xml version="1.0"?>
<opencv_storage>
<stage8>
  <maxWeakCount>11</maxWeakCount>
  <stageThreshold>-5.2492934465408325e-01</stageThreshold>
  <weakClassifiers>
    <_>
      <internalNodes>
        0 -1 86009 -4.4404864311218262e-02</internalNodes>
      <leafValues>
        7.8853046894073486e-01 6.3694268465042114e-02</leafValues></_>
    <_>
      <internalNodes>
        0 -1 86009 4.7461278736591339e-02</internalNodes>
      <leafValues>
        -1.1238004267215729e-01 7.8051352500915527e-01</leafValues></_>
    <_>
      <internalNodes>
        0 -1 29733 -6.0702781192958355e-03</internalNodes>
      <leafValues>
        3.5318678617477417e-01 -4.8726662993431091e-01</leafValues></_>
    <_>
      <internalNodes>
        0 -1 132217 3.3183585852384567e-02</internalNodes>
      <leafValues>
        -2.5635477900505066e-01 5.7383728027343750e-01</leafValues></_>
    <_>
      <internalNodes>
        0 -1 154105 -8.2912836223840714e-03</internalNodes>
      <leafValues>
        6.8857252597808838e-01 -1.4775744080543518e-01</leafValues></_>
    <_>
      <internalNodes>
        0 -1 150089 6.1121042817831039e-03</internalNodes>
      <leafValues>
        -1.2477199733257294e-01 8.9458805322647095e-01</leafValues></_>
    <_>
      <internalNodes>
        0 -1 154395 2.5257156230509281e-03</internalNodes>
      <leafValues>
        -1.7565628886222839e-01 5.6734454631805420e-01</leafValues></_>
    <_>
      <internalNodes>
        0 -1 119345 2.9263799078762531e-03</internalNodes>
      <leafValues>
        1.3932095468044281e-01 -8.3550715446472168e-01</leafValues></_>
    <_>
      <internalNodes>
        0 -1 119884 -2.3030838929116726e-03</internalNodes>
      <leafValues>
        7.0195096731185913e-01 -1.6251204907894135e-01</leafValues></_>
    <_>
      <internalNodes>
        0 -1 119884 1.5468964120373130e-03</internalNodes>
      <leafValues>
        -1.7195250093936920e-01 6.5314877033233643e-01</leafValues></_>
    <_>
      <internalNodes>
        0 -1 105882 -2.3267895448952913e-04</internalNodes>
      <leafValues>
        -5.5211633443832397e-01 1.8587093055248260e-01</leafValues></_></weakClassifiers></stage8>
</opencv_storage>
