<?xml version="1.0"?>
<opencv_storage>
<stage1>
  <maxWeakCount>6</maxWeakCount>
  <stageThreshold>-7.2771632671356201e-01</stageThreshold>
  <weakClassifiers>
    <_>
      <internalNodes>
        0 -1 10818 -8.7446737289428711e-01</internalNodes>
      <leafValues>
        -1. 5.8478605747222900e-01</leafValues></_>
    <_>
      <internalNodes>
        0 -1 8263 -2.3812443017959595e-02</internalNodes>
      <leafValues>
        6.5431022644042969e-01 -3.7379422783851624e-01</leafValues></_>
    <_>
      <internalNodes>
        0 -1 153361 5.5715329945087433e-03</internalNodes>
      <leafValues>
        -2.4834135174751282e-01 8.2010161876678467e-01</leafValues></_>
    <_>
      <internalNodes>
        0 -1 622 -6.5147995948791504e-02</internalNodes>
      <leafValues>
        -6.5541750192642212e-01 3.0545464158058167e-01</leafValues></_>
    <_>
      <internalNodes>
        0 -1 153750 -2.2430359385907650e-03</internalNodes>
      <leafValues>
        6.4301413297653198e-01 -2.8250157833099365e-01</leafValues></_>
    <_>
      <internalNodes>
        0 -1 37141 -6.8774178624153137e-02</internalNodes>
      <leafValues>
        2.4755229055881500e-01 -8.1707841157913208e-01</leafValues></_></weakClassifiers></stage1>
</opencv_storage>
