<?xml version="1.0"?>
<opencv_storage>
<stage9>
  <maxWeakCount>10</maxWeakCount>
  <stageThreshold>-6.5917843580245972e-01</stageThreshold>
  <weakClassifiers>
    <_>
      <internalNodes>
        0 -1 56210 1.0331318713724613e-02</internalNodes>
      <leafValues>
        -1.3605442363768816e-03 6.5490198135375977e-01</leafValues></_>
    <_>
      <internalNodes>
        0 -1 9698 4.2733944952487946e-02</internalNodes>
      <leafValues>
        1.8002283573150635e-01 -9.4258314371109009e-01</leafValues></_>
    <_>
      <internalNodes>
        0 -1 84920 5.2899397909641266e-02</internalNodes>
      <leafValues>
        -1.9288800656795502e-01 6.7779690027236938e-01</leafValues></_>
    <_>
      <internalNodes>
        0 -1 44527 -3.9286442101001740e-02</internalNodes>
      <leafValues>
        5.6924647092819214e-01 -2.7583307027816772e-01</leafValues></_>
    <_>
      <internalNodes>
        0 -1 150288 -1.5756408683955669e-03</internalNodes>
      <leafValues>
        6.9850683212280273e-01 -1.5607042610645294e-01</leafValues></_>
    <_>
      <internalNodes>
        0 -1 4667 -4.1171340853907168e-04</internalNodes>
      <leafValues>
        2.1310490369796753e-01 -5.0009554624557495e-01</leafValues></_>
    <_>
      <internalNodes>
        0 -1 5867 5.6289252825081348e-03</internalNodes>
      <leafValues>
        1.2398497760295868e-01 -7.7752143144607544e-01</leafValues></_>
    <_>
      <internalNodes>
        0 -1 130854 -1.6044339537620544e-01</internalNodes>
      <leafValues>
        -9.5495325326919556e-01 9.0613707900047302e-02</leafValues></_>
    <_>
      <internalNodes>
        0 -1 25790 2.9631345532834530e-03</internalNodes>
      <leafValues>
        9.1694727540016174e-02 -8.3768051862716675e-01</leafValues></_>
    <_>
      <internalNodes>
        0 -1 158274 6.4195934683084488e-03</internalNodes>
      <leafValues>
        -1.8180841207504272e-01 6.1726421117782593e-01</leafValues></_></weakClassifiers></stage9>
</opencv_storage>
