<?xml version="1.0"?>
<opencv_storage>
<stage4>
  <maxWeakCount>9</maxWeakCount>
  <stageThreshold>-8.6799472570419312e-01</stageThreshold>
  <weakClassifiers>
    <_>
      <internalNodes>
        0 -1 103281 7.5061595998704433e-03</internalNodes>
      <leafValues>
        5.2321004867553711e-01 -7.2052401304244995e-01</leafValues></_>
    <_>
      <internalNodes>
        0 -1 8833 -6.2470752745866776e-03</internalNodes>
      <leafValues>
        -7.0892590284347534e-01 2.9795134067535400e-01</leafValues></_>
    <_>
      <internalNodes>
        0 -1 118679 -2.0571216009557247e-03</internalNodes>
      <leafValues>
        -8.0526763200759888e-01 2.1636605262756348e-01</leafValues></_>
    <_>
      <internalNodes>
        0 -1 11136 -1.6290284693241119e-02</internalNodes>
      <leafValues>
        7.2425210475921631e-01 -2.9317283630371094e-01</leafValues></_>
    <_>
      <internalNodes>
        0 -1 156792 -3.0609639361500740e-03</internalNodes>
      <leafValues>
        8.8388997316360474e-01 -1.7736142873764038e-01</leafValues></_>
    <_>
      <internalNodes>
        0 -1 151137 3.0783931724727154e-03</internalNodes>
      <leafValues>
        -1.7232123017311096e-01 7.6760524511337280e-01</leafValues></_>
    <_>
      <internalNodes>
        0 -1 5 1.0105436667799950e-03</internalNodes>
      <leafValues>
        2.0750074088573456e-01 -7.9496240615844727e-01</leafValues></_>
    <_>
      <internalNodes>
        0 -1 13312 3.1866100616753101e-03</internalNodes>
      <leafValues>
        1.9418169558048248e-01 -6.9608384370803833e-01</leafValues></_>
    <_>
      <internalNodes>
        0 -1 13376 -9.5028686337172985e-04</internalNodes>
      <leafValues>
        -6.3041311502456665e-01 2.3279368877410889e-01</leafValues></_></weakClassifiers></stage4>
</opencv_storage>
