<?xml version="1.0"?>
<opencv_storage>
<stage13>
  <maxWeakCount>14</maxWeakCount>
  <stageThreshold>-8.2611453533172607e-01</stageThreshold>
  <weakClassifiers>
    <_>
      <internalNodes>
        0 -1 105882 4.6361546264961362e-04</internalNodes>
      <leafValues>
        4.5752143859863281e-01 -4.0092167258262634e-01</leafValues></_>
    <_>
      <internalNodes>
        0 -1 58658 2.2679485380649567e-02</internalNodes>
      <leafValues>
        -2.1404299139976501e-01 5.0938308238983154e-01</leafValues></_>
    <_>
      <internalNodes>
        0 -1 153927 -3.5018231719732285e-03</internalNodes>
      <leafValues>
        6.3403940200805664e-01 -1.3944865763187408e-01</leafValues></_>
    <_>
      <internalNodes>
        0 -1 154391 3.7361620925366879e-03</internalNodes>
      <leafValues>
        -2.4892194569110870e-01 4.7826182842254639e-01</leafValues></_>
    <_>
      <internalNodes>
        0 -1 162116 9.1549009084701538e-03</internalNodes>
      <leafValues>
        1.0256516188383102e-01 -9.1138732433319092e-01</leafValues></_>
    <_>
      <internalNodes>
        0 -1 88262 -4.9852056690724567e-05</internalNodes>
      <leafValues>
        2.6523813605308533e-01 -3.5153615474700928e-01</leafValues></_>
    <_>
      <internalNodes>
        0 -1 142625 -1.6646443400532007e-03</internalNodes>
      <leafValues>
        -6.6502243280410767e-01 1.6524405777454376e-01</leafValues></_>
    <_>
      <internalNodes>
        0 -1 112878 -3.2955496571958065e-03</internalNodes>
      <leafValues>
        5.1038891077041626e-01 -2.3816727101802826e-01</leafValues></_>
    <_>
      <internalNodes>
        0 -1 6293 -6.6789492964744568e-02</internalNodes>
      <leafValues>
        3.8800299167633057e-01 -2.9963192343711853e-01</leafValues></_>
    <_>
      <internalNodes>
        0 -1 97430 1.2662963126786053e-04</internalNodes>
      <leafValues>
        -3.1936705112457275e-01 3.1067615747451782e-01</leafValues></_>
    <_>
      <internalNodes>
        0 -1 105641 4.6232162276282907e-04</internalNodes>
      <leafValues>
        1.3312011957168579e-01 -6.7852514982223511e-01</leafValues></_>
    <_>
      <internalNodes>
        0 -1 109508 -5.6496225297451019e-02</internalNodes>
      <leafValues>
        4.7934097051620483e-01 -2.1154727041721344e-01</leafValues></_>
    <_>
      <internalNodes>
        0 -1 158789 3.9842352271080017e-03</internalNodes>
      <leafValues>
        -1.3330361247062683e-01 7.6799309253692627e-01</leafValues></_>
    <_>
      <internalNodes>
        0 -1 147859 1.0552005842328072e-02</internalNodes>
      <leafValues>
        -1.4537270367145538e-01 6.8195688724517822e-01</leafValues></_></weakClassifiers></stage13>
</opencv_storage>
